svm_type c_svc
kernel_type rbf
gamma 0.5
nr_class 2
total_sv 133
rho -0.84418939649789926
label 0 1
nr_sv 88 45
SV
0.12775955739766551 1:2.6100669 2:-4.9309963 
5 1:-0.09912758 2:1.2059129 
5 1:0.27455442 2:-0.021468929 
5 1:0.46139542 2:0.79678564 
2.2817513842815225 1:1.8627029 2:-2.0671053 
5 1:0.18113392 2:-0.22603257 
2.9420625639042246 1:0.18113392 2:-0.36240833 
5 1:-0.28596858 2:0.9331614 
2.8950198706333787 1:3.5442719 2:1.6832281 
5 1:0.36797492 2:1.751416 
5 1:0.36797492 2:0.18309471 
5 1:-0.0057070795 2:0.11490683 
5 1:0.18113392 2:1.0695372 
5 1:-0.0057070795 2:0.11490683 
5 1:-0.09912758 2:0.52403412 
5 1:0.46139542 2:-0.49878409 
3.719351383129315 1:-1.1267531 2:1.4104766 
5 1:-0.09912758 2:0.11490683 
5 1:0.36797492 2:-0.089656809 
5 1:-0.19254808 2:1.4104766 
0.15500397789118342 1:-5.5175166 2:3.1833615 
5 1:-1.4070146 2:1.4104766 
3.009305750608624 1:0.087713421 2:2.6378584 
5 1:-0.19254808 2:0.38765836 
5 1:-0.09912758 2:0.86497352 
5 1:-0.09912758 2:0.11490683 
5 1:-0.0057070795 2:0.046718952 
5 1:-0.19254808 2:0.45584624 
5 1:-0.09912758 2:0.79678564 
5 1:-0.0057070795 2:0.79678564 
5 1:0.46139542 2:-0.56697197 
5 1:0.18113392 2:-0.22603257 
3.1987603879614133 1:-0.37938908 2:2.0241675 
5 1:0.55481592 2:-0.089656809 
5 1:-0.09912758 2:0.11490683 
5 1:0.46139542 2:0.45584624 
5 1:0.83507743 2:-0.29422045 
5 1:0.27455442 2:-0.36240833 
0.15560032691085282 1:6.8139895 2:4.4107433 
2.5904115233113831 1:-0.37938908 2:1.2741008 
5 1:-0.09912758 2:0.592222 
4.3508764676687655 1:-0.19254808 2:0.18309471 
5 1:-0.0057070795 2:1.5468523 
5 1:-0.19254808 2:0.52403412 
5 1:-0.09912758 2:0.25128259 
5 1:1.5824414 2:0.31947047 
5 1:0.92849793 2:0.31947047 
5 1:-0.19254808 2:0.9331614 
5 1:0.27455442 2:0.38765836 
5 1:-0.19254808 2:0.38765836 
5 1:-0.0057070795 2:-0.089656809 
5 1:0.087713421 2:0.046718952 
5 1:-0.0057070795 2:-0.089656809 
5 1:0.18113392 2:0.25128259 
5 1:-0.0057070795 2:1.3422887 
5 1:0.087713421 2:0.38765836 
5 1:0.087713421 2:0.31947047 
5 1:0.27455442 2:-0.43059621 
2.3752761498406905 1:-0.28596858 2:0.66040988 
5 1:0.36797492 2:0.31947047 
5 1:0.36797492 2:-0.49878409 
5 1:0.27455442 2:2.5014827 
5 1:0.36797492 2:0.66040988 
5 1:0.18113392 2:-0.021468929 
0.015374857378262042 1:-2.3412196 2:-1.9307296 
5 1:-0.19254808 2:0.52403412 
5 1:1.0219184 2:0.79678564 
5 1:-0.19254808 2:0.52403412 
5 1:0.27455442 2:0.046718952 
5 1:0.27455442 2:1.0013493 
5 1:-0.09912758 2:0.52403412 
5 1:1.4890209 2:0.9331614 
5 1:-0.09912758 2:0.52403412 
5 1:0.18113392 2:2.0241675 
5 1:-0.19254808 2:0.79678564 
5 1:0.27455442 2:-0.43059621 
5 1:0.55481592 2:0.52403412 
5 1:0.27455442 2:0.86497352 
5 1:-0.0057070795 2:0.046718952 
5 1:-0.19254808 2:0.18309471 
5 1:-0.09912758 2:0.79678564 
5 1:0.087713421 2:0.31947047 
5 1:-0.09912758 2:0.45584624 
2.3344586542340795 1:-1.5938556 2:1.5468523 
5 1:0.18113392 2:1.8196039 
5 1:-0.0057070795 2:0.25128259 
5 1:0.36797492 2:-0.021468929 
5 1:-0.0057070795 2:0.18309471 
-1.7135153670884284 1:1.4890209 2:3.7288645 
-10 1:0.087713421 2:0.25128259 
-10 1:0.18113392 2:0.52403412 
-10 1:0.27455442 2:0.046718952 
-10 1:0.27455442 2:-0.089656809 
-10 1:0.087713421 2:0.31947047 
-10 1:0.18113392 2:0.38765836 
-10 1:-0.09912758 2:-0.089656809 
-10 1:0.18113392 2:0.31947047 
-10 1:0.18113392 2:0.31947047 
-10 1:0.087713421 2:0.66040988 
-10 1:0.087713421 2:-0.021468929 
-10 1:-0.0057070795 2:0.18309471 
-2.1504617740813909 1:1.1153389 2:-0.63515985 
-10 1:0.36797492 2:-0.089656809 
-10 1:-0.09912758 2:0.18309471 
-10 1:-0.65965058 2:1.2741008 
-10 1:1.7692824 2:0.66040988 
-10 1:0.087713421 2:0.66040988 
-10 1:-0.47280958 2:1.6150402 
-2.3544921360726079 1:2.7969079 2:1.3422887 
-10 1:0.18113392 2:0.72859776 
-10 1:-0.09912758 2:-0.22603257 
-10 1:-0.09912758 2:0.25128259 
-10 1:0.18113392 2:0.25128259 
-10 1:0.18113392 2:1.5468523 
-0.18891999893545086 1:1.6758619 2:0.79678564 
-10 1:-0.93991209 2:1.0695372 
-10 1:-0.0057070795 2:0.18309471 
-10 1:0.18113392 2:0.25128259 
-10 1:0.18113392 2:0.72859776 
-10 1:0.18113392 2:0.72859776 
-10 1:-0.0057070795 2:0.72859776 
-10 1:0.18113392 2:-0.089656809 
-10 1:0.36797492 2:2.1605433 
-1.2559149215071272 1:2.7034874 2:2.5014827 
-10 1:0.36797492 2:-0.089656809 
-10 1:0.18113392 2:0.45584624 
-10 1:1.2087594 2:-0.8397235 
-10 1:0.36797492 2:1.6832281 
-10 1:0.46139542 2:-0.22603257 
-10 1:0.36797492 2:1.751416 
-10 1:-0.93991209 2:1.0695372 
-2.4877086574663609 1:0.27455442 2:0.11490683 
-10 1:0.087713421 2:0.25128259 
