svm_type c_svc
kernel_type rbf
gamma 0.33333333333333331
nr_class 2
total_sv 30
rho -5.3893752610008985
label 0 1
nr_sv 14 16
SV
209.6516842412185 1:-0.5860888 2:0.92370759 3:-0.0087854355 
10.069252468749413 1:-1.6894871 2:-0.88388615 3:1.9760137 
18.190243322845479 1:-1.1666277 2:-0.47148503 3:2.5241597 
1000 1:-0.96099734 2:-0.21369764 3:0.15234714 
16.53249760541576 1:-0.59059801 2:-1.0947831 3:0.36815314 
1000 1:-0.21184184 2:0.44775854 3:-0.1233301 
118.48714802990713 1:1.3557961 2:-0.71342213 3:-0.080143232 
40.987902588140791 1:1.0539576 2:0.79140168 3:-0.38431226 
187.06515596062508 1:-0.17792701 2:-0.2126703 3:-0.029769248 
828.04561389064941 1:0.20662671 2:-0.50619423 3:0.011813353 
640.09972311075376 1:0.8391173 2:0.14286056 3:-0.23177855 
25.721352291703191 1:-1.517284 2:0.11548945 3:0.28768311 
71.453062898330302 1:1.8527492 2:0.54799696 3:-0.56212921 
1000 1:-1.4115527 2:-0.50876257 3:0.46710433 
-1000 1:0.46178876 2:-0.077796058 3:-0.1095334 
-213.10436874180652 1:-1.6688387 2:-0.22815369 3:0.54866526 
-898.92851494291222 1:-0.7043032 2:-0.078823392 3:0.072582987 
-456.54470374145347 1:-0.66547874 2:-0.54391206 3:0.19912757 
-26.29456569609815 1:1.8161707 2:-0.027676847 3:-0.32893296 
-1.3100254461447689 1:0.34239047 2:-3.0657229 3:0.98098314 
-5.3911543711646805 1:0.7487416 2:-2.4171818 3:0.82844943 
-520.84596851718038 1:0.16245735 2:0.71699336 3:-0.19180022 
-0.65468712010379593 1:0.16315375 2:-0.15624033 3:2.9647555 
-3.9066816617656333 1:-0.78475516 2:-0.17898843 3:2.6646934 
-926.66396964409159 1:-1.3419124 2:-0.50876257 3:0.46710433 
-9.1543789764415759 1:-0.78029818 2:-2.0114583 3:2.5603519 
-1.6664445069721838 1:0.5574223 2:-3.5364619 3:2.1091679 
-391.53392705762207 1:0.72297469 2:-0.61626571 3:0.027406828 
-547.69389728746705 1:-0.60290693 2:0.50822447 3:-0.010582215 
-162.61034869711176 1:1.7999619 2:0.42501043 3:-0.4233922 
