svm_type c_svc
kernel_type rbf
gamma 0.33333333333333331
nr_class 2
total_sv 36
rho -0.44981240448233101
label 0 1
nr_sv 21 15
SV
10 1:0.15326025 2:-0.44339779 3:0.90721537 
1.1544780927441476 1:-1.1720923 2:0.58594246 3:-0.46653273 
10 1:0.25521045 2:-0.44339779 3:0.44929934 
2.3631238848177887 1:0.74796973 2:0.21163692 3:-1.3060455 
0.2539511425955232 1:-0.13559863 2:-0.3498214 3:0.44929934 
10 1:1.0198369 2:-0.53697417 3:-0.23757472 
0.059195385377788345 1:-2.6333784 2:-0.63055056 3:-1.3060455 
7.4419797600713684 1:0.81593652 2:-0.53697417 3:-0.16125538 
0.54290992548254646 1:0.10228516 2:-5.7772518 3:3.4257536 
2.3925726432781684 1:-0.44144922 2:0.21163692 3:-0.69549075 
0.68706099982925206 1:-0.62835791 2:4.7033035 3:2.3572828 
10 1:1.1217871 2:-0.63055056 3:0.06770264 
10 1:1.4446294 2:-0.44339779 3:-0.3902134 
7.5123974879593431 1:-1.0871338 2:0.024484144 3:0.83089603 
10 1:1.410646 2:-1.0984325 3:0.83089603 
0.51615203874985449 1:-1.1041255 2:1.2409772 3:-4.4351384 
0.075406878440945735 1:0.10228516 2:-3.0635366 3:2.3572828 
1.8398339197985036 1:0.62902783 2:-1.8470436 3:1.7467281 
0.6776033805094781 1:-1.8517602 2:0.77309523 3:0.75457669 
10 1:-0.18657373 2:0.024484144 3:-0.54285207 
10 1:1.2747124 2:-0.63055056 3:0.44929934 
-10 1:0.61203613 2:-0.25624501 3:0.06770264 
-10 1:1.3936543 2:-1.1920089 3:1.059854 
-10 1:-0.52640771 2:0.21163692 3:1.059854 
-0.94202940807719404 1:-0.61136621 2:0.3052133 3:1.7467281 
-10 1:1.0538203 2:-0.3498214 3:-0.23757472 
-10 1:0.74796973 2:-0.3498214 3:0.14402198 
-1.4484274909881629 1:0.52707764 2:2.0831646 3:-1.2297261 
-8.5045292235830345 1:1.3086958 2:-0.3498214 3:0.06770264 
-10 1:0.59504443 2:-0.25624501 3:0.06770264 
-0.71864878038396385 1:-0.28852392 2:2.4574702 3:2.6625602 
-10 1:1.4616211 2:-1.1920089 3:1.059854 
-2.8649838569498685 1:0.051310059 2:-0.069092242 3:0.29666066 
-1.0380467796724779 1:0.28919385 2:1.2409772 3:4.0363083 
-10 1:-0.62835791 2:0.024484144 3:-0.23757472 
-10 1:1.3936543 2:-0.3498214 3:-0.3902134 
